08e1 0.3376218695498838 0.49008886694407444 0.9335002490614585 2.8130632528927713 -10.338711244414021 3.6584344212900533 2.6134974999879774 2.4084112623561453 
4b69 2.846912151995494 3.4136798320892665 9.462916330671122 -3.7004306421890423 -4.487985196633658 -3.661001070736129 -4.331050515040527 -1.2703343221042331 
2c06 -0.27612260948718453 0.06360977064677834 -0.025903755322048763 -0.0007233672900128846 0.07490093628883615 0.16011579585782898 0.31352878008359325 1.5506632695816414 
6658 0.003621130379804104 0.055476899782057304 0.14490990310989507 0.18997427044568013 -0.06322394304167037 0.37980329932630785 0.999560140328227 2.3648842789659725 
6403 1.0934484280086008 1.0141909074005635 2.755096545191268 7.509756919411912 -3.541631899982175 -3.287875987173041 -3.4975444315741875 -3.3434158247242256 
06a6 0.07252949768102364 0.14234989302029114 -0.0524327197191822 0.08659035568762108 0.24105154667544412 0.7740029704502537 1.9847849147473604 6.044309050779534 
2abf 0.8417217452459499 -0.009431363968428775 -0.29868654821512175 -0.0827458248993326 0.015870558891174356 0.1746107536311175 0.39556560795754225 0.9571848106071682 
1a6d 0.20103131886216152 0.20508395326495518 0.32938154341562303 0.17955873729305602 -0.05221394115367843 -0.04688647286716852 0.040574943796305205 0.17280522270765214 
